//Numpy array shape [1176, 1]
//Min -0.351427972317
//Max 1.305701494217
//Number of zeros 0

#ifndef W10_H_
#define W10_H_

#ifndef __SYNTHESIS__
q_dense_weight_t w10[1176];
#else
q_dense_weight_t w10[1176] = {0.03003714, -0.03341631, 0.06064590, -0.01538333, -0.03164228, 0.01498792, 0.02598228, 0.00097875, -0.01595388, 0.06236920, -0.01543595, -0.04383168, -0.01474957, 0.06249083, -0.02966015, -0.03877954, 0.12490091, -0.01490356, -0.03495327, -0.04707764, 0.03252177, 0.01738760, -0.01477525, 0.19538859, -0.01409289, -0.04697075, -0.01506104, 0.03057110, 0.03077547, -0.04511035, 0.08964323, -0.01096727, -0.03156998, -0.01600869, 0.03032575, 0.02933314, -0.04776236, 0.11065181, -0.00502785, -0.02434600, -0.00945826, 0.04651375, 0.02863750, -0.01592964, 0.08312083, -0.00712499, -0.06214476, -0.01311563, 0.03074940, -0.03119347, -0.01599564, 0.12477641, -0.01046048, -0.05240444, 0.01329167, 0.03000380, 0.15672033, -0.03586544, 0.12494953, 0.04611355, -0.11892449, 0.05134372, 0.00371437, 0.40660992, -0.12831409, 0.31251958, 0.27015418, -0.27122828, 0.27900413, 0.35644528, 0.53105778, -0.05448016, 1.28669071, 0.39057019, -0.06390364, 0.33624431, 0.77121329, 0.65650541, -0.29898891, 0.90793824, 0.48413572, -0.34027648, 0.48328960, 0.64552081, 0.22023667, 0.25167334, 1.10066390, 0.36709279, 0.26543882, 0.10969450, 0.77555478, 0.15654537, 0.17193398, 1.04225993, 0.20446919, 0.14167449, 0.04716595, 0.79524946, 0.09442567, 0.02812708, 0.64374483, 0.07145274, 0.05873103, 0.01634212, 0.28351647, 0.03073624, -0.01500521, 0.19958724, 0.01543650, -0.01198645, 0.01498170, 0.15596770, 0.01459229, -0.01540975, 0.18783343, -0.00954102, -0.04323144, -0.01443735, 0.01836591, 0.00678907, -0.01596868, 0.18739374, -0.01469468, -0.04584439, -0.01568253, 0.09211908, 0.01964528, -0.02429213, 0.06146580, -0.01512101, -0.04604884, -0.00998257, 0.09094025, 0.01654913, -0.04670982, 0.12549599, 0.00005860, -0.05218221, -0.01544590, 0.06188839, 0.03037703, -0.03379893, 0.12203967, 0.00016723, -0.04681381, -0.00776567, 0.03230761, -0.00073934, -0.03816923, 0.12452886, -0.00538626, -0.04700984, 0.01529323, 0.06287234, 0.03118449, -0.01673175, 0.12795158, 0.01364824, -0.05057878, -0.01517984, 0.09337844, -0.02698827, -0.01582207, 0.11723962, 0.01486953, -0.03118479, -0.00835480, 0.03095974, 0.00743077, -0.03906483, 0.09282244, 0.01489182, -0.07811055, -0.00758737, 0.03267075, 0.02879170, -0.03879293, 0.07012227, 0.01408900, -0.03136894, 0.01624464, 0.03286838, 0.03204679, -0.02895847, 0.12621324, -0.00340123, -0.06767951, -0.01458672, 0.01983080, 0.03113782, -0.03658206, 0.12539341, -0.01458143, -0.04758347, 0.01110270, 0.00496803, 0.01055154, -0.03737334, 0.06319880, 0.01723506, -0.06675212, 0.00839244, 0.00732171, 0.03138547, -0.01591249, 0.06218474, 0.01456350, -0.06229066, 0.01520417, 0.02642381, 0.01464752, -0.01970034, 0.09034658, -0.01120718, -0.03579753, 0.00152102, 0.01175999, 0.03068425, -0.03111035, 0.11248894, -0.01597925, -0.03858942, 0.01596659, 0.06318698, 0.02906347, -0.02207126, 0.14915839, -0.01558625, -0.04667886, -0.01428694, 0.02725924, 0.01521659, -0.03237842, 0.05910842, -0.01501060, -0.05344721, -0.01175497, 0.06123365, 0.02457878, -0.03667935, 0.17635207, 0.00370155, -0.04337779, -0.01440057, 0.02882242, 0.00737238, -0.01558338, 0.12437144, -0.01578559, -0.04650387, -0.00521144, 0.02872334, 0.02577168, -0.02156527, 0.12671466, -0.01385028, -0.02729355, -0.01035186, 0.06397779, 0.02095864, -0.03134925, 0.12485253, -0.01444202, -0.04614412, -0.01492169, 0.02930571, 0.01004204, -0.03689251, 0.12465807, 0.01484158, -0.04664195, -0.01551396, 0.03362402, 0.01588039, -0.03120554, 0.18619418, -0.01506166, -0.04690578, -0.01432720, 0.03694152, 0.03016612, -0.04663352, 0.06294020, -0.01198524, -0.04386535, -0.00589395, 0.06051416, 0.01157446, -0.02446689, 0.06276925, 0.01567301, -0.04611931, -0.00923027, 0.02779872, 0.03231677, -0.03074536, 0.07351203, 0.01572512, -0.04687423, 0.01746763, 0.03065769, 0.03231874, -0.01566758, 0.18747853, -0.00783069, -0.05473296, -0.00557526, 0.03162156, 0.03180502, -0.03283571, 0.12456064, 0.01393904, -0.04744160, 0.03053784, 0.02476546, 0.03103616, -0.01589062, 0.08704502, -0.00492133, -0.04684553, 0.01622869, 0.06247037, 0.01614119, -0.02060138, 0.12430448, 0.01507998, -0.04411641, -0.01540931, 0.03178113, 0.00729065, -0.02042088, 0.06260471, -0.00480603, -0.03530590, 0.01397789, 0.03996385, -0.01683828, -0.02307865, 0.06489703, -0.01433943, -0.05996754, -0.00595868, 0.06546890, 0.02958366, -0.01619541, 0.18756653, 0.01509745, -0.07241073, -0.01172130, 0.02879917, 0.15532397, -0.02782440, 0.12460055, 0.04703506, -0.14047146, 0.07259190, 0.03394838, 0.38712001, -0.12384593, 0.31303015, 0.28166920, -0.27171600, 0.28088489, 0.36142039, 0.52808839, -0.07599614, 1.30570149, 0.39133152, -0.05981723, 0.34092298, 0.77857995, 0.67372495, -0.27357015, 0.86417669, 0.48207518, -0.35142797, 0.48455817, 0.63113922, 0.23324849, 0.24088539, 1.11723602, 0.36944079, 0.25133911, 0.11212843, 0.78181106, 0.18558483, 0.17187114, 1.01147807, 0.20346716, 0.13714038, 0.07660518, 0.78945434, 0.03094978, 0.04702922, 0.68758821, 0.04630764, 0.04651210, 0.01597732, 0.30508256, 0.03010363, 0.00176174, 0.31291893, 0.01669475, -0.01343597, -0.01553880, 0.09388504, 0.01799029, -0.03734717, 0.19567537, -0.00089996, -0.04711360, -0.01343973, 0.02940241, 0.02934858, -0.01595472, 0.18735006, -0.01561301, -0.03956662, 0.01405119, 0.09275976, 0.02308646, -0.02895264, 0.06298990, -0.00191091, -0.07463197, -0.01489497, 0.09366674, 0.01484829, -0.01547331, 0.11956928, -0.01363987, -0.04639557, -0.01763667, 0.06252213, 0.02903877, -0.04385972, 0.09927736, -0.00716687, -0.04657136, 0.00561249, 0.03123525, 0.03154592, -0.01589859, 0.15031473, 0.00285793, -0.05086068, -0.01588565, 0.02991250, 0.03194898, -0.01599514, 0.06284280, 0.01468386, -0.04571397, 0.03121233, 0.04020072, 0.02082888, -0.03120426, 0.06213934, -0.01010526, -0.04534871, 0.01545587, 0.03207114, 0.03023279, -0.03778680, 0.06769672, 0.01522635, -0.04411540, 0.01904959, 0.01952766, 0.01610827, -0.02332265, 0.12490521, 0.01481336, -0.04482048, -0.01561921, 0.02929926, 0.02095805, -0.02296480, 0.06455529, 0.01475555, -0.03122668, -0.01465602, 0.02764822, 0.03840308, -0.03096876, 0.08226822, 0.01651738, -0.04679690, 0.01247009, 0.02711490, 0.01393461, -0.01323269, 0.06375596, 0.00714567, -0.03841431, -0.01659112, 0.06313099, 0.02913331, -0.02444573, 0.12489106, -0.01407935, -0.02347685, 0.01510864, 0.03491793, 0.03105969, -0.04657697, 0.05678853, -0.01339467, -0.03603422, 0.01434389, 0.03013793, 0.01792788, -0.04501551, 0.08548065, -0.01571208, -0.03706912, -0.01326070, 0.03533210, 0.03083267, -0.04708482, 0.06369446, -0.01598159, -0.04525463, -0.01511175, 0.03291853, 0.01842933, -0.04703604, 0.12480342, -0.01499207, -0.06367894, -0.01307781, 0.06023696, -0.01384133, -0.02121055, 0.06301302, -0.01519596, -0.04703938, -0.01368326, 0.06155970, 0.03043496, -0.02095674, 0.06510808, 0.01495543, -0.06413206, 0.01501803, 0.09218689, 0.01246639, -0.03915681, 0.12438618, -0.00383153, -0.05511490, -0.01564862, 0.09248267, 0.03089584, -0.01232681, 0.12520264, -0.01304256, -0.03133678, -0.02246964, 0.06299954, -0.02964449, -0.03054783, 0.03939903, 0.01578928, -0.06146961, -0.01412930, 0.03165567, 0.03064951, -0.03842370, 0.12500972, -0.01459211, -0.04576047, -0.01616121, 0.09176256, 0.03176358, -0.03138961, 0.06355809, 0.01489329, -0.03252287, -0.01600580, 0.09340377, 0.03187111, -0.01786985, -0.01821805, 0.01499257, -0.04667161, 0.00991074, 0.02974422, 0.03749434, -0.01583591, 0.10090312, -0.01537062, -0.04670119, 0.01566796, 0.03051492, 0.01515907, -0.03072442, 0.12406459, -0.01395657, -0.04462137, -0.01503436, 0.05469660, 0.03185856, -0.01623735, 0.18707274, 0.01322072, -0.04640759, 0.01356907, 0.02182650, 0.03366427, -0.03458735, 0.12499761, 0.01397529, -0.04067078, 0.01555094, 0.03254312, 0.01713399, -0.03031072, 0.05975030, -0.01296731, -0.04630687, -0.01339727, 0.07563235, 0.02431101, -0.01603171, 0.06228412, 0.01578308, -0.03683908, -0.01033474, 0.02923417, 0.03366539, -0.02213083, 0.12453696, -0.01496016, -0.06594520, -0.00243056, 0.03253964, 0.01818614, -0.01498442, 0.11958738, 0.01678899, -0.05226238, -0.01363324, 0.02787033, 0.09400896, -0.02344948, 0.18810955, 0.04857119, -0.11938615, 0.07774894, 0.02221111, 0.40549144, -0.14353389, 0.31282762, 0.27581146, -0.28727365, 0.26899448, 0.36671004, 0.52263528, -0.04290696, 1.28579247, 0.38144311, -0.04951414, 0.33377367, 0.78180599, 0.66896921, -0.29607883, 0.86904532, 0.48317021, -0.32834184, 0.49337620, 0.63665533, 0.24570324, 0.24125065, 1.06715262, 0.37093991, 0.27430460, 0.10642614, 0.76867706, 0.15753344, 0.17753544, 0.96652406, 0.19816893, 0.14225943, 0.07607989, 0.78238899, 0.05660700, 0.02223628, 0.66863799, 0.06240022, 0.05601757, 0.01628957, 0.31271172, 0.02479904, -0.01437164, 0.32451290, 0.01901934, -0.00455288, 0.01475523, 0.13433400, 0.02818906, -0.00507674, 0.18934619, 0.01373371, -0.04590839, 0.01621882, 0.06320225, 0.02223739, -0.02211894, 0.12647936, 0.01573173, -0.04488908, -0.01329154, 0.05984940, 0.02533968, -0.01616701, 0.12337189, -0.01232643, -0.04684884, -0.01391231, 0.01628288, -0.02406484, -0.03138800, 0.18524435, -0.01293600, -0.04643099, -0.01894540, 0.06281007, -0.01831838, -0.02358149, 0.09041156, -0.01316290, -0.03052462, -0.01587310, 0.06344874, 0.01786943, -0.03590411, 0.06206804, 0.00434922, -0.03093643, -0.01494670, 0.06289025, 0.02182572, -0.03512555, 0.09141065, -0.01543062, -0.04700259, -0.01528682, 0.03256653, 0.01980615, -0.01539726, 0.06888092, -0.01385363, -0.04659733, 0.00336618, 0.03271425, 0.03126820, -0.03780626, 0.12622231, 0.01742154, -0.04706202, -0.01166433, -0.01278184, 0.01848733, -0.03104717, 0.06091700, 0.01529699, -0.04538072, 0.01519870, 0.06253249, 0.03145555, -0.03131469, 0.18947345, 0.01437676, -0.03566467, -0.01533978, 0.03103737, -0.02476990, -0.02147294, 0.06251849, -0.01442116, -0.04471476, 0.01587168, 0.03016998, 0.01550264, -0.02968605, 0.18855418, -0.01216336, -0.04918141, -0.01354127, 0.02355886, 0.02911728, -0.01537631, 0.09385365, -0.01399989, -0.04598408, 0.01289756, 0.03165451, 0.02043527, -0.03128302, 0.06026135, -0.01398006, -0.05463558, -0.01465153, 0.02878088, 0.02153731, -0.03694168, 0.06992999, -0.01093746, -0.04702704, -0.01565742, 0.03486112, -0.02772474, -0.04079802, 0.06319186, 0.00829040, -0.03890862, -0.01390092, 0.02405311, 0.00874378, -0.03152895, 0.18649274, 0.01535233, -0.04615305, -0.00461845, 0.03217019, 0.02815715, -0.03864090, 0.10929636, 0.01824795, -0.05094815, -0.01356543, 0.09340545, -0.03116407, -0.03840683, 0.18734248, 0.00384725, -0.03277689, -0.01317308, 0.03106077, -0.00226832, -0.01562027, 0.18759696, -0.01167219, -0.04741183, -0.01156874, 0.06192394, 0.03128907, -0.01529373, 0.05950865, 0.01174831, -0.04682565, -0.01266079, 0.03149454, 0.02963795, -0.01613118, 0.09770854, 0.01508127, -0.04681240, -0.00947408, 0.03108453, 0.01439481, -0.03779283, 0.07764278, 0.02659218, -0.04621788, -0.00460969, 0.03077511, -0.03000720, -0.02065761, 0.07190371, 0.01656692, -0.04687365, -0.01560418, 0.03055239, 0.01607372, -0.01501562, 0.06928515, 0.00167748, -0.04679753, 0.01550250, -0.01994615, 0.02819059, -0.03024697, 0.06139781, -0.01578699, -0.03687005, 0.01742344, 0.02993642, 0.01660099, -0.02871822, 0.06449486, 0.01490198, -0.04608234, 0.03037395, 0.05841934, 0.01480789, -0.01612813, 0.12487914, -0.01312520, -0.05360373, -0.01649419, 0.03965027, 0.03089276, -0.02319600, 0.16866639, 0.01520638, -0.04465875, -0.01520468, 0.06005162, 0.03179204, -0.01558959, 0.12566264, 0.00739465, -0.05853282, -0.00729924, -0.03053473, 0.03033344, -0.01549357, 0.06847301, 0.01721000, -0.05295591, 0.01099740, 0.03060874, 0.03146872, -0.03633657, 0.18678729, 0.01482432, -0.07098047, -0.01496587, 0.05561595, 0.03150651, -0.02105047, 0.18564117, 0.01421407, -0.05603601, -0.01132644, 0.04118023, 0.12224357, -0.01859290, 0.17372636, 0.04814240, -0.13874738, 0.07856172, -0.03022642, 0.40098274, -0.14711221, 0.22473814, 0.26906258, -0.25829703, 0.27349946, 0.36163962, 0.53239799, -0.06091309, 1.25085902, 0.39114779, -0.04889627, 0.33496618, 0.77919245, 0.67288935, -0.28404418, 0.88264453, 0.47705391, -0.32825407, 0.47429654, 0.63013244, 0.22050172, 0.26504475, 1.09637749, 0.36452109, 0.27798975, 0.10411952, 0.76816446, 0.15852070, 0.17372629, 0.96785420, 0.20459554, 0.14283277, 0.07756653, 0.77974421, 0.06020047, 0.04775232, 0.58941698, 0.05034865, 0.05199424, 0.02809783, 0.30386126, 0.03113595, 0.00081691, 0.24242580, 0.01615993, -0.01559928, -0.01196984, 0.16001229, 0.01608254, -0.01556476, 0.18789020, -0.01153626, -0.03986626, -0.01401605, 0.09396631, -0.01983596, -0.03291898, 0.06079689, -0.01559033, -0.04673648, -0.01191037, 0.06041645, -0.03105011, -0.03119448, 0.08192639, -0.01571856, -0.05609287, -0.01515035, 0.06237692, -0.03144303, -0.02022183, 0.09160055, -0.01620134, -0.04808557, -0.01556934, 0.02952556, -0.01242455, -0.03673968, 0.12590401, 0.01510450, -0.06525105, -0.01705949, 0.03189748, 0.03086204, -0.03818857, 0.09650850, -0.00844605, -0.04650363, -0.01432678, 0.05593381, 0.01168717, -0.01594050, 0.12535617, 0.01330759, -0.04671663, -0.01606196, 0.02976120, 0.00380663, -0.01526719, 0.06314187, -0.01546525, -0.04688747, 0.00058356, 0.01380389, 0.02128278, -0.03120225, 0.17009880, 0.01458575, -0.04692539, 0.01550635, 0.03002436, -0.00486116, -0.01565318, 0.07583240, 0.01436768, -0.04626820, -0.00240300, 0.01126173, -0.01805545, -0.02979839, 0.12352780, -0.01174176, -0.04614459, -0.01730941, -0.00207977, -0.02151877, -0.02249802, 0.15232621, 0.01635106, -0.04898385, -0.01432869, 0.01772622, 0.02456727, -0.01503124, 0.06292985, -0.01197475, -0.04222954, -0.01497528, 0.00753248, -0.02836777, -0.01934488, 0.12512448, 0.01481912, -0.05401086, -0.00029062, 0.03391207, -0.02912933, -0.01571729, 0.06249203, -0.01225551, -0.04625490, 0.01620605, 0.08976062, 0.01610605, -0.01579669, 0.18364131, -0.01116295, -0.04696663, -0.01565202, 0.06074543, 0.03102352, -0.01584967, 0.06185043, 0.01511938, -0.04580014, -0.01109796, 0.06219924, 0.02960383, -0.01795362, 0.18488018, 0.01598227, -0.03919334, -0.01374357, 0.03086940, 0.02976466, -0.02307183, 0.16513509, 0.01389995, -0.05413232, -0.01312550, 0.06255502, 0.01371673, -0.02527300, 0.09072097, 0.01304524, -0.03567526, -0.01479993, 0.09019554, 0.01622090, -0.01697041, 0.06265332, -0.01118071, -0.05382792, -0.01496590, 0.06258692, 0.03043699, -0.03825003, 0.11348014, 0.01422368, -0.05364571, 0.01611430, 0.06386621, -0.02297463, -0.03086787, 0.18480693, 0.01639831, -0.07089950, -0.01459037, 0.06142031, 0.03025002, -0.02250719, 0.07762479, 0.01552887, -0.05457817, -0.00859747, 0.02964467, 0.03034733, -0.01549086, 0.12548977, 0.01490857, -0.03915562, -0.01362059, 0.06275168, 0.01493082, -0.01557078, 0.06293217, 0.01568721, -0.01773338, 0.01482230, 0.02610256};

#endif

#endif
